digraph Tree {
node [shape=box, style="filled", color="black"] ;
0 [label="Thal_normal <= 0.5\ngini = 0.497\nsamples = 297\nvalue = [160, 137]\nclass = No", fillcolor="#e5813925"] ;
1 [label="ChestPain_asymptomatic <= 0.5\ngini = 0.373\nsamples = 133\nvalue = [33, 100]\nclass = Yes", fillcolor="#399de5ab"] ;
0 -> 1 [labeldistance=2.5, labelangle=45, headlabel="True"] ;
2 [label="Ca <= 0.5\ngini = 0.499\nsamples = 44\nvalue = [23, 21]\nclass = No", fillcolor="#e5813916"] ;
1 -> 2 ;
3 [label="Chol <= 207.5\ngini = 0.417\nsamples = 27\nvalue = [19, 8]\nclass = No", fillcolor="#e5813994"] ;
2 -> 3 ;
4 [label="gini = 0.0\nsamples = 6\nvalue = [6, 0]\nclass = No", fillcolor="#e58139ff"] ;
3 -> 4 ;
5 [label="MaxHR <= 132.5\ngini = 0.472\nsamples = 21\nvalue = [13, 8]\nclass = No", fillcolor="#e5813962"] ;
3 -> 5 ;
6 [label="gini = 0.0\nsamples = 2\nvalue = [0, 2]\nclass = Yes", fillcolor="#399de5ff"] ;
5 -> 6 ;
7 [label="Chol <= 231.5\ngini = 0.432\nsamples = 19\nvalue = [13, 6]\nclass = No", fillcolor="#e5813989"] ;
5 -> 7 ;
8 [label="Oldpeak <= 0.7\ngini = 0.48\nsamples = 5\nvalue = [2, 3]\nclass = Yes", fillcolor="#399de555"] ;
7 -> 8 ;
9 [label="gini = 0.0\nsamples = 2\nvalue = [2, 0]\nclass = No", fillcolor="#e58139ff"] ;
8 -> 9 ;
10 [label="gini = 0.0\nsamples = 3\nvalue = [0, 3]\nclass = Yes", fillcolor="#399de5ff"] ;
8 -> 10 ;
11 [label="RestBP <= 161.0\ngini = 0.337\nsamples = 14\nvalue = [11, 3]\nclass = No", fillcolor="#e58139b9"] ;
7 -> 11 ;
12 [label="gini = 0.165\nsamples = 11\nvalue = [10, 1]\nclass = No", fillcolor="#e58139e6"] ;
11 -> 12 ;
13 [label="gini = 0.444\nsamples = 3\nvalue = [1, 2]\nclass = Yes", fillcolor="#399de57f"] ;
11 -> 13 ;
14 [label="Slope <= 1.5\ngini = 0.36\nsamples = 17\nvalue = [4, 13]\nclass = Yes", fillcolor="#399de5b1"] ;
2 -> 14 ;
15 [label="RestECG <= 1.0\ngini = 0.48\nsamples = 5\nvalue = [3, 2]\nclass = No", fillcolor="#e5813955"] ;
14 -> 15 ;
16 [label="gini = 0.0\nsamples = 3\nvalue = [3, 0]\nclass = No", fillcolor="#e58139ff"] ;
15 -> 16 ;
17 [label="gini = 0.0\nsamples = 2\nvalue = [0, 2]\nclass = Yes", fillcolor="#399de5ff"] ;
15 -> 17 ;
18 [label="Ca <= 2.0\ngini = 0.153\nsamples = 12\nvalue = [1, 11]\nclass = Yes", fillcolor="#399de5e8"] ;
14 -> 18 ;
19 [label="gini = 0.0\nsamples = 8\nvalue = [0, 8]\nclass = Yes", fillcolor="#399de5ff"] ;
18 -> 19 ;
20 [label="RestBP <= 135.0\ngini = 0.375\nsamples = 4\nvalue = [1, 3]\nclass = Yes", fillcolor="#399de5aa"] ;
18 -> 20 ;
21 [label="Chol <= 209.5\ngini = 0.5\nsamples = 2\nvalue = [1, 1]\nclass = No", fillcolor="#e5813900"] ;
20 -> 21 ;
22 [label="gini = 0.0\nsamples = 1\nvalue = [0, 1]\nclass = Yes", fillcolor="#399de5ff"] ;
21 -> 22 ;
23 [label="gini = 0.0\nsamples = 1\nvalue = [1, 0]\nclass = No", fillcolor="#e58139ff"] ;
21 -> 23 ;
24 [label="gini = 0.0\nsamples = 2\nvalue = [0, 2]\nclass = Yes", fillcolor="#399de5ff"] ;
20 -> 24 ;
25 [label="Oldpeak <= 0.55\ngini = 0.199\nsamples = 89\nvalue = [10, 79]\nclass = Yes", fillcolor="#399de5df"] ;
1 -> 25 ;
26 [label="MaxHR <= 149.0\ngini = 0.472\nsamples = 21\nvalue = [8, 13]\nclass = Yes", fillcolor="#399de562"] ;
25 -> 26 ;
27 [label="Chol <= 237.0\ngini = 0.408\nsamples = 7\nvalue = [5, 2]\nclass = No", fillcolor="#e5813999"] ;
26 -> 27 ;
28 [label="gini = 0.0\nsamples = 4\nvalue = [4, 0]\nclass = No", fillcolor="#e58139ff"] ;
27 -> 28 ;
29 [label="RestBP <= 134.0\ngini = 0.444\nsamples = 3\nvalue = [1, 2]\nclass = Yes", fillcolor="#399de57f"] ;
27 -> 29 ;
30 [label="gini = 0.0\nsamples = 1\nvalue = [1, 0]\nclass = No", fillcolor="#e58139ff"] ;
29 -> 30 ;
31 [label="gini = 0.0\nsamples = 2\nvalue = [0, 2]\nclass = Yes", fillcolor="#399de5ff"] ;
29 -> 31 ;
32 [label="Ca <= 0.5\ngini = 0.337\nsamples = 14\nvalue = [3, 11]\nclass = Yes", fillcolor="#399de5b9"] ;
26 -> 32 ;
33 [label="Age <= 42.0\ngini = 0.49\nsamples = 7\nvalue = [3, 4]\nclass = Yes", fillcolor="#399de540"] ;
32 -> 33 ;
34 [label="gini = 0.0\nsamples = 3\nvalue = [0, 3]\nclass = Yes", fillcolor="#399de5ff"] ;
33 -> 34 ;
35 [label="RestECG <= 1.0\ngini = 0.375\nsamples = 4\nvalue = [3, 1]\nclass = No", fillcolor="#e58139aa"] ;
33 -> 35 ;
36 [label="gini = 0.0\nsamples = 3\nvalue = [3, 0]\nclass = No", fillcolor="#e58139ff"] ;
35 -> 36 ;
37 [label="gini = 0.0\nsamples = 1\nvalue = [0, 1]\nclass = Yes", fillcolor="#399de5ff"] ;
35 -> 37 ;
38 [label="gini = 0.0\nsamples = 7\nvalue = [0, 7]\nclass = Yes", fillcolor="#399de5ff"] ;
32 -> 38 ;
39 [label="Thal_reversable <= 0.5\ngini = 0.057\nsamples = 68\nvalue = [2, 66]\nclass = Yes", fillcolor="#399de5f7"] ;
25 -> 39 ;
40 [label="Age <= 65.5\ngini = 0.298\nsamples = 11\nvalue = [2, 9]\nclass = Yes", fillcolor="#399de5c6"] ;
39 -> 40 ;
41 [label="RestBP <= 112.0\ngini = 0.18\nsamples = 10\nvalue = [1, 9]\nclass = Yes", fillcolor="#399de5e3"] ;
40 -> 41 ;
42 [label="Oldpeak <= 1.05\ngini = 0.5\nsamples = 2\nvalue = [1, 1]\nclass = No", fillcolor="#e5813900"] ;
41 -> 42 ;
43 [label="gini = 0.0\nsamples = 1\nvalue = [0, 1]\nclass = Yes", fillcolor="#399de5ff"] ;
42 -> 43 ;
44 [label="gini = 0.0\nsamples = 1\nvalue = [1, 0]\nclass = No", fillcolor="#e58139ff"] ;
42 -> 44 ;
45 [label="gini = 0.0\nsamples = 8\nvalue = [0, 8]\nclass = Yes", fillcolor="#399de5ff"] ;
41 -> 45 ;
46 [label="gini = 0.0\nsamples = 1\nvalue = [1, 0]\nclass = No", fillcolor="#e58139ff"] ;
40 -> 46 ;
47 [label="gini = 0.0\nsamples = 57\nvalue = [0, 57]\nclass = Yes", fillcolor="#399de5ff"] ;
39 -> 47 ;
48 [label="Ca <= 0.5\ngini = 0.349\nsamples = 164\nvalue = [127, 37]\nclass = No", fillcolor="#e58139b5"] ;
0 -> 48 [labeldistance=2.5, labelangle=-45, headlabel="False"] ;
49 [label="RestBP <= 157.0\ngini = 0.201\nsamples = 115\nvalue = [102, 13]\nclass = No", fillcolor="#e58139de"] ;
48 -> 49 ;
50 [label="Age <= 59.5\ngini = 0.152\nsamples = 109\nvalue = [100, 9]\nclass = No", fillcolor="#e58139e8"] ;
49 -> 50 ;
51 [label="Oldpeak <= 3.55\ngini = 0.066\nsamples = 88\nvalue = [85, 3]\nclass = No", fillcolor="#e58139f6"] ;
50 -> 51 ;
52 [label="Oldpeak <= 1.7\ngini = 0.045\nsamples = 87\nvalue = [85, 2]\nclass = No", fillcolor="#e58139f9"] ;
51 -> 52 ;
53 [label="RestBP <= 109.0\ngini = 0.024\nsamples = 82\nvalue = [81, 1]\nclass = No", fillcolor="#e58139fc"] ;
52 -> 53 ;
54 [label="gini = 0.219\nsamples = 8\nvalue = [7, 1]\nclass = No", fillcolor="#e58139db"] ;
53 -> 54 ;
55 [label="gini = 0.0\nsamples = 74\nvalue = [74, 0]\nclass = No", fillcolor="#e58139ff"] ;
53 -> 55 ;
56 [label="Age <= 54.5\ngini = 0.32\nsamples = 5\nvalue = [4, 1]\nclass = No", fillcolor="#e58139bf"] ;
52 -> 56 ;
57 [label="gini = 0.0\nsamples = 4\nvalue = [4, 0]\nclass = No", fillcolor="#e58139ff"] ;
56 -> 57 ;
58 [label="gini = 0.0\nsamples = 1\nvalue = [0, 1]\nclass = Yes", fillcolor="#399de5ff"] ;
56 -> 58 ;
59 [label="gini = 0.0\nsamples = 1\nvalue = [0, 1]\nclass = Yes", fillcolor="#399de5ff"] ;
51 -> 59 ;
60 [label="ChestPain_asymptomatic <= 0.5\ngini = 0.408\nsamples = 21\nvalue = [15, 6]\nclass = No", fillcolor="#e5813999"] ;
50 -> 60 ;
61 [label="Chol <= 302.0\ngini = 0.26\nsamples = 13\nvalue = [11, 2]\nclass = No", fillcolor="#e58139d1"] ;
60 -> 61 ;
62 [label="Oldpeak <= 2.8\ngini = 0.153\nsamples = 12\nvalue = [11, 1]\nclass = No", fillcolor="#e58139e8"] ;
61 -> 62 ;
63 [label="gini = 0.0\nsamples = 11\nvalue = [11, 0]\nclass = No", fillcolor="#e58139ff"] ;
62 -> 63 ;
64 [label="gini = 0.0\nsamples = 1\nvalue = [0, 1]\nclass = Yes", fillcolor="#399de5ff"] ;
62 -> 64 ;
65 [label="gini = 0.0\nsamples = 1\nvalue = [0, 1]\nclass = Yes", fillcolor="#399de5ff"] ;
61 -> 65 ;
66 [label="ExAng <= 0.5\ngini = 0.5\nsamples = 8\nvalue = [4, 4]\nclass = No", fillcolor="#e5813900"] ;
60 -> 66 ;
67 [label="Age <= 61.5\ngini = 0.444\nsamples = 6\nvalue = [4, 2]\nclass = No", fillcolor="#e581397f"] ;
66 -> 67 ;
68 [label="gini = 0.0\nsamples = 1\nvalue = [0, 1]\nclass = Yes", fillcolor="#399de5ff"] ;
67 -> 68 ;
69 [label="gini = 0.32\nsamples = 5\nvalue = [4, 1]\nclass = No", fillcolor="#e58139bf"] ;
67 -> 69 ;
70 [label="gini = 0.0\nsamples = 2\nvalue = [0, 2]\nclass = Yes", fillcolor="#399de5ff"] ;
66 -> 70 ;
71 [label="Age <= 62.0\ngini = 0.444\nsamples = 6\nvalue = [2, 4]\nclass = Yes", fillcolor="#399de57f"] ;
49 -> 71 ;
72 [label="gini = 0.0\nsamples = 4\nvalue = [0, 4]\nclass = Yes", fillcolor="#399de5ff"] ;
71 -> 72 ;
73 [label="gini = 0.0\nsamples = 2\nvalue = [2, 0]\nclass = No", fillcolor="#e58139ff"] ;
71 -> 73 ;
74 [label="ChestPain_asymptomatic <= 0.5\ngini = 0.5\nsamples = 49\nvalue = [25, 24]\nclass = No", fillcolor="#e581390a"] ;
48 -> 74 ;
75 [label="Chol <= 237.5\ngini = 0.366\nsamples = 29\nvalue = [22, 7]\nclass = No", fillcolor="#e58139ae"] ;
74 -> 75 ;
76 [label="Chol <= 202.5\ngini = 0.496\nsamples = 11\nvalue = [6, 5]\nclass = No", fillcolor="#e581392a"] ;
75 -> 76 ;
77 [label="Chol <= 172.0\ngini = 0.32\nsamples = 5\nvalue = [4, 1]\nclass = No", fillcolor="#e58139bf"] ;
76 -> 77 ;
78 [label="gini = 0.0\nsamples = 1\nvalue = [0, 1]\nclass = Yes", fillcolor="#399de5ff"] ;
77 -> 78 ;
79 [label="gini = 0.0\nsamples = 4\nvalue = [4, 0]\nclass = No", fillcolor="#e58139ff"] ;
77 -> 79 ;
80 [label="MaxHR <= 138.0\ngini = 0.444\nsamples = 6\nvalue = [2, 4]\nclass = Yes", fillcolor="#399de57f"] ;
76 -> 80 ;
81 [label="gini = 0.0\nsamples = 2\nvalue = [2, 0]\nclass = No", fillcolor="#e58139ff"] ;
80 -> 81 ;
82 [label="gini = 0.0\nsamples = 4\nvalue = [0, 4]\nclass = Yes", fillcolor="#399de5ff"] ;
80 -> 82 ;
83 [label="Fbs <= 0.5\ngini = 0.198\nsamples = 18\nvalue = [16, 2]\nclass = No", fillcolor="#e58139df"] ;
75 -> 83 ;
84 [label="gini = 0.0\nsamples = 11\nvalue = [11, 0]\nclass = No", fillcolor="#e58139ff"] ;
83 -> 84 ;
85 [label="ChestPain_nonanginal <= 0.5\ngini = 0.408\nsamples = 7\nvalue = [5, 2]\nclass = No", fillcolor="#e5813999"] ;
83 -> 85 ;
86 [label="Age <= 56.0\ngini = 0.444\nsamples = 3\nvalue = [1, 2]\nclass = Yes", fillcolor="#399de57f"] ;
85 -> 86 ;
87 [label="gini = 0.0\nsamples = 1\nvalue = [1, 0]\nclass = No", fillcolor="#e58139ff"] ;
86 -> 87 ;
88 [label="gini = 0.0\nsamples = 2\nvalue = [0, 2]\nclass = Yes", fillcolor="#399de5ff"] ;
86 -> 88 ;
89 [label="gini = 0.0\nsamples = 4\nvalue = [4, 0]\nclass = No", fillcolor="#e58139ff"] ;
85 -> 89 ;
90 [label="Sex <= 0.5\ngini = 0.255\nsamples = 20\nvalue = [3, 17]\nclass = Yes", fillcolor="#399de5d2"] ;
74 -> 90 ;
91 [label="Oldpeak <= 1.05\ngini = 0.5\nsamples = 6\nvalue = [3, 3]\nclass = No", fillcolor="#e5813900"] ;
90 -> 91 ;
92 [label="gini = 0.0\nsamples = 2\nvalue = [2, 0]\nclass = No", fillcolor="#e58139ff"] ;
91 -> 92 ;
93 [label="Chol <= 298.5\ngini = 0.375\nsamples = 4\nvalue = [1, 3]\nclass = Yes", fillcolor="#399de5aa"] ;
91 -> 93 ;
94 [label="gini = 0.0\nsamples = 3\nvalue = [0, 3]\nclass = Yes", fillcolor="#399de5ff"] ;
93 -> 94 ;
95 [label="gini = 0.0\nsamples = 1\nvalue = [1, 0]\nclass = No", fillcolor="#e58139ff"] ;
93 -> 95 ;
96 [label="gini = 0.0\nsamples = 14\nvalue = [0, 14]\nclass = Yes", fillcolor="#399de5ff"] ;
90 -> 96 ;
}